digraph Tree {
node [shape=box] ;
0 [label="X[1] <= 126.5\nentropy = 0.898\nsamples = 907\nvalue = [622, 285]"] ;
1 [label="X[1] <= 60.5\nentropy = 0.306\nsamples = 658\nvalue = [622, 36]"] ;
0 -> 1 [labeldistance=2.5, labelangle=45, headlabel="True"] ;
2 [label="entropy = 0.0\nsamples = 324\nvalue = [324, 0]"] ;
1 -> 2 ;
3 [label="X[3] <= 99907.5\nentropy = 0.493\nsamples = 334\nvalue = [298, 36]"] ;
1 -> 3 ;
4 [label="X[1] <= 118.5\nentropy = 0.173\nsamples = 155\nvalue = [151, 4]"] ;
3 -> 4 ;
5 [label="entropy = 0.0\nsamples = 122\nvalue = [122, 0]"] ;
4 -> 5 ;
6 [label="X[2] <= 114.5\nentropy = 0.533\nsamples = 33\nvalue = [29, 4]"] ;
4 -> 6 ;
7 [label="X[0] <= 16.5\nentropy = 0.345\nsamples = 31\nvalue = [29, 2]"] ;
6 -> 7 ;
8 [label="X[1] <= 122.5\nentropy = 0.592\nsamples = 14\nvalue = [12, 2]"] ;
7 -> 8 ;
9 [label="entropy = 0.0\nsamples = 8\nvalue = [8, 0]"] ;
8 -> 9 ;
10 [label="X[4] <= 90.91\nentropy = 0.918\nsamples = 6\nvalue = [4, 2]"] ;
8 -> 10 ;
11 [label="entropy = 0.0\nsamples = 4\nvalue = [4, 0]"] ;
10 -> 11 ;
12 [label="entropy = 0.0\nsamples = 2\nvalue = [0, 2]"] ;
10 -> 12 ;
13 [label="entropy = 0.0\nsamples = 17\nvalue = [17, 0]"] ;
7 -> 13 ;
14 [label="entropy = 0.0\nsamples = 2\nvalue = [0, 2]"] ;
6 -> 14 ;
15 [label="X[0] <= 23.5\nentropy = 0.677\nsamples = 179\nvalue = [147, 32]"] ;
3 -> 15 ;
16 [label="X[0] <= 16.5\nentropy = 0.984\nsamples = 68\nvalue = [39, 29]"] ;
15 -> 16 ;
17 [label="X[3] <= 100427.0\nentropy = 0.61\nsamples = 40\nvalue = [34, 6]"] ;
16 -> 17 ;
18 [label="X[1] <= 125.5\nentropy = 0.196\nsamples = 33\nvalue = [32, 1]"] ;
17 -> 18 ;
19 [label="entropy = 0.0\nsamples = 32\nvalue = [32, 0]"] ;
18 -> 19 ;
20 [label="entropy = 0.0\nsamples = 1\nvalue = [0, 1]"] ;
18 -> 20 ;
21 [label="X[4] <= 83.55\nentropy = 0.863\nsamples = 7\nvalue = [2, 5]"] ;
17 -> 21 ;
22 [label="X[3] <= 100449.5\nentropy = 0.918\nsamples = 3\nvalue = [2, 1]"] ;
21 -> 22 ;
23 [label="entropy = 0.0\nsamples = 1\nvalue = [0, 1]"] ;
22 -> 23 ;
24 [label="entropy = 0.0\nsamples = 2\nvalue = [2, 0]"] ;
22 -> 24 ;
25 [label="entropy = 0.0\nsamples = 4\nvalue = [0, 4]"] ;
21 -> 25 ;
26 [label="X[1] <= 103.0\nentropy = 0.677\nsamples = 28\nvalue = [5, 23]"] ;
16 -> 26 ;
27 [label="entropy = 0.0\nsamples = 14\nvalue = [0, 14]"] ;
26 -> 27 ;
28 [label="X[3] <= 100349.0\nentropy = 0.94\nsamples = 14\nvalue = [5, 9]"] ;
26 -> 28 ;
29 [label="X[4] <= 82.35\nentropy = 0.863\nsamples = 7\nvalue = [5, 2]"] ;
28 -> 29 ;
30 [label="entropy = 0.0\nsamples = 1\nvalue = [0, 1]"] ;
29 -> 30 ;
31 [label="X[0] <= 19.5\nentropy = 0.65\nsamples = 6\nvalue = [5, 1]"] ;
29 -> 31 ;
32 [label="entropy = 0.0\nsamples = 4\nvalue = [4, 0]"] ;
31 -> 32 ;
33 [label="X[3] <= 99912.5\nentropy = 1.0\nsamples = 2\nvalue = [1, 1]"] ;
31 -> 33 ;
34 [label="entropy = 0.0\nsamples = 1\nvalue = [1, 0]"] ;
33 -> 34 ;
35 [label="entropy = 0.0\nsamples = 1\nvalue = [0, 1]"] ;
33 -> 35 ;
36 [label="entropy = 0.0\nsamples = 7\nvalue = [0, 7]"] ;
28 -> 36 ;
37 [label="X[0] <= 50.5\nentropy = 0.179\nsamples = 111\nvalue = [108, 3]"] ;
15 -> 37 ;
38 [label="entropy = 0.0\nsamples = 108\nvalue = [108, 0]"] ;
37 -> 38 ;
39 [label="entropy = 0.0\nsamples = 3\nvalue = [0, 3]"] ;
37 -> 39 ;
40 [label="entropy = 0.0\nsamples = 249\nvalue = [0, 249]"] ;
0 -> 40 [labeldistance=2.5, labelangle=-45, headlabel="False"] ;
}